34 64
34 0.016579 -0.033659 0.342167 -0.046998 0.131106 -0.269389 0.052045 0.028012 -0.144698 -0.051138 0.025385 -0.043295 -0.168462 -0.223083 0.382534 0.127469 0.020315 -0.076960 0.059762 0.156959 -0.245993 -0.154940 -0.076233 0.103261 -0.216407 -0.242194 -0.293176 0.150293 -0.063360 0.076548 -0.007347 0.015831 0.118824 -0.065301 -0.465936 -0.161219 -0.255480 -0.265110 0.004664 0.169891 0.002445 0.076210 -0.113517 -0.061930 -0.252113 0.318465 -0.207354 0.006094 -0.016237 -0.165707 -0.245193 0.106772 -0.271403 -0.108459 0.091645 0.020334 0.087219 -0.225332 0.148605 -0.067327 0.095498 -0.124050 0.054365 -0.264420
1 -0.007003 0.265891 -0.351422 0.043923 -0.042363 -0.067832 -0.097852 -0.128659 -0.061823 0.069792 -0.208595 -0.064088 0.035611 0.101039 -0.022275 0.056442 0.137567 0.014196 -0.238771 -0.025396 0.182730 0.263976 -0.211388 0.123030 0.226719 0.243274 -0.123586 -0.355090 -0.058359 0.193452 -0.305289 0.058626 0.357840 0.184947 -0.064020 -0.002381 0.122310 0.163116 -0.172136 -0.123931 0.352023 0.158078 -0.140702 0.294086 -0.010573 0.242581 0.164560 -0.169318 -0.102214 -0.037829 -0.304418 0.111540 -0.024170 0.023676 0.058815 -0.320132 -0.065486 -0.069629 -0.045269 0.029866 -0.129457 0.097838 0.172111 0.178042
33 0.137296 0.125905 0.310512 -0.222299 -0.040889 -0.174372 -0.085572 0.049704 -0.040417 -0.062006 -0.041504 -0.022254 -0.171289 -0.314913 0.579071 -0.044864 -0.106625 -0.185378 0.137394 0.025804 -0.187596 -0.105845 -0.012281 0.040177 -0.202433 -0.042709 -0.348877 0.130272 -0.074975 0.039043 0.066631 -0.138971 0.148274 -0.088793 -0.450055 -0.182938 -0.178472 -0.226591 0.000898 0.269510 -0.000686 -0.004035 0.003663 -0.340863 -0.240440 0.410139 -0.173872 -0.011991 -0.154256 -0.041422 -0.160425 0.048491 -0.188941 0.012854 0.026564 0.312577 0.218698 -0.374363 0.291693 0.046321 -0.042825 -0.163022 0.192943 -0.236679
3 -0.008526 -0.049613 0.156562 0.281219 0.073258 -0.309796 0.220795 -0.085703 0.192164 0.008155 0.201601 0.041424 -0.076465 -0.098491 -0.199185 -0.058781 0.051523 -0.072661 -0.054175 0.261464 -0.073341 -0.328961 -0.218457 0.215016 -0.096591 -0.190459 -0.128142 -0.048742 -0.108740 0.137640 -0.000129 0.216713 -0.019994 0.038754 -0.120676 0.096383 -0.158165 -0.086360 -0.134047 -0.119258 0.191627 0.100937 -0.123506 0.305367 -0.092580 -0.034520 -0.049118 0.115226 0.021563 -0.111746 -0.225402 -0.085474 -0.084379 -0.173903 0.060919 -0.281603 -0.180825 0.069335 -0.195270 0.049872 0.060744 0.193006 -0.025572 -0.091122
2 -0.145229 0.319876 0.085536 0.182197 0.050526 -0.367928 0.209921 -0.187556 0.005556 0.137627 -0.225793 -0.035204 0.068486 -0.103165 -0.112859 -0.070385 0.246978 -0.007399 -0.123073 -0.126321 -0.112487 -0.044535 -0.420587 0.203458 0.004757 0.017707 -0.271790 -0.369205 -0.046944 0.202946 -0.241606 0.113523 0.375951 0.104070 -0.311384 0.115505 0.058445 0.025037 -0.058899 -0.193922 0.476229 0.050621 -0.347617 0.254081 -0.217971 0.415500 -0.106804 -0.304401 0.081544 0.054028 -0.323516 0.094056 0.095936 -0.033964 0.113989 -0.229076 -0.226631 -0.181926 -0.316252 0.041745 0.067760 0.104982 0.211693 -0.079502
4 0.058027 0.376582 0.058181 0.249098 -0.050226 -0.225170 0.120121 0.042625 0.147289 0.068323 -0.209616 0.065600 0.119061 -0.064239 -0.093136 -0.160471 0.186429 -0.020044 -0.299486 -0.000689 -0.132082 -0.207875 -0.529157 0.141877 -0.084680 0.103418 -0.038026 -0.515550 -0.109633 0.222061 -0.245950 0.200045 0.273825 0.145076 -0.217308 0.288242 0.074419 0.153370 -0.068435 -0.269168 0.356150 0.023109 -0.255717 0.265024 -0.253388 0.280861 -0.029113 -0.200691 0.058063 0.078909 -0.207145 0.048773 0.092736 -0.003497 0.054725 -0.268863 -0.007990 0.092959 -0.371778 0.129777 0.054477 0.316022 0.173425 0.017232
32 -0.239349 -0.271698 0.240710 0.130870 -0.110437 -0.408533 0.272852 -0.042990 0.187833 0.014972 0.433970 0.036468 -0.243849 0.012760 -0.230458 0.050375 0.080554 -0.000382 0.472345 0.037715 -0.067136 -0.046006 0.201069 0.229209 0.008497 0.050246 -0.304768 0.333281 -0.281840 -0.004587 -0.119590 -0.073869 -0.134594 -0.003663 0.156171 0.009874 -0.134585 0.044846 -0.217138 0.295068 0.084612 -0.019154 -0.006235 0.069315 -0.219562 -0.230120 0.087771 0.200257 0.007107 -0.077621 -0.133520 -0.233405 -0.004128 -0.118936 -0.186120 -0.101103 -0.124316 -0.293772 -0.010197 0.167858 -0.093089 -0.107703 0.069312 -0.075004
24 -0.007422 -0.261388 0.210773 -0.074867 -0.057491 -0.124059 -0.021459 0.018188 -0.152384 -0.037798 0.382241 0.029383 -0.150952 -0.130399 0.453732 0.441169 -0.072561 0.005184 0.173461 -0.046264 -0.199164 -0.109665 0.324593 -0.016086 -0.005145 -0.011149 -0.137026 0.437993 -0.299884 -0.027312 -0.038370 -0.161363 -0.220414 -0.006880 -0.161547 -0.265592 -0.249258 -0.094768 -0.075182 0.414986 0.036272 0.088189 0.023278 -0.295417 -0.394188 -0.078043 -0.136561 0.176150 -0.061046 0.035048 0.042787 0.105398 -0.144597 0.068367 -0.134307 0.083176 0.061536 -0.396423 0.325783 0.198086 -0.037511 -0.166459 -0.115056 -0.139101
14 0.030235 0.129065 0.110506 0.190318 0.109453 -0.122661 0.305135 0.016625 0.190097 0.078091 -0.142655 -0.005193 0.075752 0.026318 -0.292948 -0.159173 0.119662 -0.114061 -0.043064 0.046423 -0.055975 -0.269575 -0.273710 0.079472 0.072569 -0.078255 -0.100694 -0.198427 -0.082628 0.212890 -0.216254 0.115550 0.172702 0.042536 -0.138205 0.241317 0.017468 0.192668 -0.100349 -0.277465 0.095949 0.007088 -0.123357 0.152275 -0.068465 0.017881 0.004302 -0.069993 0.115026 0.005998 -0.042947 -0.064498 0.006278 -0.004630 0.053736 -0.110587 -0.026424 0.094030 -0.234214 0.063251 0.039414 0.158226 0.101218 -0.014970
9 0.058278 0.115768 0.205273 -0.142559 0.003596 -0.234835 0.063422 0.014634 0.233673 0.061711 -0.000494 0.004172 -0.095958 -0.189341 -0.030371 -0.290801 -0.031030 -0.120903 0.140558 -0.019064 0.000355 -0.165827 -0.071359 0.147150 -0.021870 -0.083774 -0.267262 -0.051653 0.072240 0.150564 0.030300 0.027389 0.170292 -0.132425 -0.146460 0.093346 -0.007366 -0.156668 -0.036337 0.003069 0.054082 0.055830 0.065433 -0.007942 -0.068905 0.127589 0.070946 -0.037976 -0.158688 -0.025037 -0.151287 -0.234038 -0.081289 -0.088780 -0.050242 0.126104 -0.086744 -0.183788 -0.080603 -0.011719 -0.053806 -0.001257 0.156039 -0.083036
7 -0.338526 0.289378 -0.612333 -0.056433 -0.226119 0.009797 -0.626926 -0.242609 -0.313271 -0.162443 -0.372887 -0.014552 0.004455 0.073615 0.159823 -0.179481 0.140971 0.248052 -0.234110 -0.003823 0.376676 0.953676 -0.250074 0.163879 -0.176908 0.432388 0.042109 -0.483337 0.422835 -0.314988 0.249399 0.112804 0.287672 0.215165 0.280037 -0.047836 0.260254 -0.283888 0.003267 0.014394 0.278691 -0.203187 -0.108591 0.365851 0.401939 0.516173 0.242661 -0.188964 -0.206849 -0.163784 -0.377736 0.117459 0.284138 -0.174766 0.095907 -0.377086 -0.052442 0.104936 -0.055435 -0.412314 -0.051116 0.029362 0.293029 0.136702
6 -0.423983 0.144074 -0.694299 0.067441 -0.237251 -0.020800 -0.489471 -0.276133 -0.145985 -0.172751 -0.243646 0.006366 -0.024533 0.169718 -0.062298 -0.246185 0.144844 0.209920 -0.017059 0.114865 0.450724 1.001304 -0.168626 0.278584 -0.121233 0.545837 0.013133 -0.399891 0.295539 -0.372476 0.228037 0.105462 0.171698 0.283960 0.458201 -0.005037 0.321161 -0.153528 -0.122989 0.027033 0.244789 -0.292598 -0.057345 0.423416 0.541787 0.316037 0.361508 -0.027074 -0.192720 -0.238895 -0.364927 -0.024596 0.358571 -0.170094 0.025203 -0.434086 -0.015191 0.168213 -0.080847 -0.335802 -0.103090 0.066951 0.338878 0.169352
28 -0.015869 -0.318010 0.256105 0.168280 -0.006486 -0.091131 0.266600 0.114337 0.151592 -0.076544 0.385382 0.014661 -0.098146 -0.070458 0.142955 0.132260 -0.046744 -0.212885 0.374337 0.256064 -0.116755 -0.175373 0.188687 0.127028 -0.013985 0.054395 -0.280626 0.461829 -0.473285 0.004452 -0.122007 -0.206290 -0.236049 0.066079 -0.113377 -0.044576 -0.251661 0.145912 -0.237504 0.238227 -0.119310 -0.014769 -0.016371 -0.157066 -0.186909 -0.197148 -0.048067 0.333005 0.061277 -0.081708 0.020525 -0.055837 -0.092787 0.133846 -0.070142 0.041010 0.286282 -0.147356 0.224011 0.274981 -0.034500 0.006668 0.036450 -0.041320
30 0.069751 -0.164495 0.449174 -0.344632 0.002134 -0.215380 -0.083757 0.232805 -0.128537 -0.045086 0.201023 -0.045447 -0.286291 -0.217492 0.547087 0.185493 -0.077745 -0.046596 0.276037 0.019866 -0.221352 -0.118759 0.248205 0.072372 -0.104142 -0.152941 -0.354951 0.440241 -0.115649 0.105672 -0.063855 -0.142315 0.084874 -0.200513 -0.342569 -0.145708 -0.332709 -0.252670 -0.027603 0.467831 -0.211949 0.162617 0.110523 -0.254903 -0.411217 0.128104 -0.027574 0.091135 -0.157590 -0.143142 -0.152989 -0.051002 -0.397511 -0.062189 -0.122678 0.167716 0.179506 -0.430728 0.303891 -0.043008 -0.039988 -0.270290 0.035731 -0.173071
31 0.326079 0.148649 0.217215 -0.134717 0.227646 -0.071769 0.099216 0.007549 0.121325 0.102972 -0.098930 -0.066514 -0.075435 -0.197759 0.083296 -0.143814 -0.075580 -0.164065 -0.164503 0.179857 -0.026857 -0.419027 -0.133857 0.005326 -0.019592 -0.408686 -0.157022 -0.055535 0.149792 0.279931 0.010270 0.120460 0.198232 -0.168146 -0.435259 -0.059163 -0.117250 -0.172751 0.072751 -0.192834 -0.017518 0.246135 0.045069 0.032153 0.014166 0.188831 -0.119100 -0.054625 -0.096971 -0.075560 -0.147510 -0.073785 -0.350834 -0.055394 0.139257 0.129542 -0.087609 -0.019009 0.039533 -0.076014 0.039253 0.040878 -0.000641 -0.085219
8 -0.026088 0.230010 -0.016031 0.336459 0.096828 -0.178678 0.301064 -0.110724 0.208187 0.090613 -0.182550 -0.009631 0.105380 0.006641 -0.346769 -0.202709 0.184430 -0.109654 -0.144391 0.106192 0.003054 -0.185488 -0.419892 0.159751 0.030750 -0.009484 -0.109938 -0.391088 -0.085432 0.202512 -0.214128 0.171162 0.212844 0.144769 -0.156626 0.212395 0.083348 0.186753 -0.129019 -0.383568 0.319932 0.002342 -0.263713 0.321168 0.007286 0.161858 -0.037794 -0.120024 0.128167 0.011438 -0.168857 -0.007172 0.087241 -0.017812 0.135711 -0.247665 -0.099081 0.134923 -0.308506 0.085573 0.065764 0.265135 0.165490 0.014181
5 -0.394503 0.164038 -0.647538 0.065381 -0.209341 -0.081530 -0.302668 -0.272921 -0.054870 -0.054513 -0.185097 -0.006005 0.007115 0.223703 -0.277232 -0.160892 0.184870 0.221583 0.005517 -0.093548 0.398736 0.818915 -0.117398 0.204747 0.116221 0.518097 0.036426 -0.419360 0.195407 -0.219394 0.019141 0.120461 0.192312 0.262092 0.502808 0.056882 0.384982 -0.019222 -0.167193 -0.017460 0.304529 -0.201873 -0.009639 0.382357 0.365905 0.166918 0.411972 -0.097906 -0.167036 -0.091120 -0.279378 -0.077662 0.362479 -0.149946 -0.056269 -0.372680 -0.186923 0.062314 -0.164112 -0.189176 -0.165088 0.020762 0.253892 0.184871
11 -0.353316 0.284829 -0.537021 -0.087757 -0.187433 -0.152876 -0.417934 -0.267603 -0.193454 0.000562 -0.287232 -0.050067 0.005129 0.140840 -0.165717 -0.103796 0.204996 0.297444 -0.175774 -0.288655 0.337868 0.739647 -0.168141 0.111822 0.097001 0.348659 0.072359 -0.501551 0.388378 -0.145141 0.008004 0.181213 0.322917 0.157630 0.388797 0.076451 0.330147 -0.185388 -0.028706 -0.007414 0.356286 -0.055907 -0.020480 0.407067 0.184093 0.276045 0.363156 -0.267895 -0.196401 -0.010678 -0.321542 -0.020385 0.273793 -0.228013 -0.062935 -0.382295 -0.358165 -0.009073 -0.210665 -0.310080 -0.148054 -0.044227 0.183922 0.129261
26 -0.228073 -0.513438 0.239329 0.380078 -0.180724 -0.175603 0.253399 0.069153 0.002796 -0.160555 0.687316 0.073331 -0.202303 0.002781 0.219726 0.388804 0.005358 -0.134149 0.522929 0.331075 -0.162213 0.002635 0.330540 0.241327 -0.077842 0.262976 -0.358309 0.687877 -0.757829 -0.102600 -0.159536 -0.318463 -0.406930 0.174470 0.029024 -0.172400 -0.424278 0.283536 -0.351169 0.497651 0.039239 -0.063538 -0.191339 -0.093961 -0.325539 -0.269253 -0.119480 0.443137 0.142397 -0.134523 -0.054520 0.085806 -0.049982 0.156007 -0.082151 -0.197009 0.327254 -0.308991 0.314009 0.410336 -0.027904 -0.035196 0.021811 0.018189
25 -0.328717 -0.457758 0.063013 0.433852 -0.232836 -0.219881 0.214608 -0.099489 -0.051949 -0.099811 0.670842 0.095911 -0.161842 0.081362 0.118170 0.509107 0.080420 -0.006870 0.435858 0.154673 -0.125744 0.091822 0.319987 0.223048 0.023771 0.346424 -0.259791 0.550897 -0.733135 -0.133016 -0.174720 -0.249020 -0.406400 0.243757 0.155069 -0.212714 -0.321844 0.299890 -0.367489 0.460984 0.257181 -0.069351 -0.243602 -0.054363 -0.356185 -0.279793 -0.102354 0.347073 0.144810 -0.047749 -0.026185 0.162584 0.100555 0.137828 -0.123146 -0.283713 0.120484 -0.366913 0.235332 0.445894 -0.041284 -0.034780 0.001445 0.033717
20 0.057099 0.237948 0.105151 -0.023846 0.085226 -0.088141 0.130683 0.012993 0.035149 0.127990 -0.188579 -0.008126 0.041625 -0.011514 -0.191394 -0.074760 0.094246 0.051696 -0.175372 -0.173992 -0.029016 -0.191116 -0.188447 -0.080155 0.074506 -0.180073 0.015559 -0.219320 0.114829 0.176333 -0.142491 0.126218 0.171583 -0.075546 -0.119207 0.107066 0.057280 0.012035 0.065615 -0.182503 0.086354 0.078491 -0.034912 0.067864 -0.131674 0.130524 -0.010269 -0.225526 0.065745 0.103865 -0.024877 -0.010251 -0.059087 -0.022445 0.041883 0.031403 -0.194117 0.008564 -0.172737 -0.023111 0.031135 0.012597 -0.008016 -0.034845
29 -0.022254 -0.041923 0.245344 0.182307 -0.089645 -0.161408 0.278454 0.017896 0.371756 -0.071601 0.191916 0.108726 -0.079009 -0.086090 -0.126804 -0.297641 -0.042760 -0.258946 0.358150 0.243728 -0.049674 -0.192279 -0.073373 0.234207 -0.128596 0.116719 -0.348132 0.169074 -0.294519 0.028604 0.086274 -0.130797 -0.078640 0.010166 -0.044922 0.131794 -0.150454 0.146765 -0.189975 0.042779 0.026098 -0.187677 -0.047804 -0.084235 -0.026382 -0.042638 -0.025366 0.220002 0.031665 -0.083265 -0.045104 -0.156299 0.065128 0.050269 -0.017506 0.096598 0.189816 -0.105326 -0.017199 0.213743 -0.036054 0.104425 0.226538 -0.051407
17 -0.274205 0.255268 -0.897898 0.000989 -0.129527 0.287214 -0.683459 -0.354970 -0.315432 -0.204271 -0.492468 -0.070541 0.131717 0.132677 0.148966 -0.224774 0.045680 0.152564 -0.314256 0.167127 0.534394 1.091453 -0.236506 0.102290 -0.119201 0.494931 0.177167 -0.552791 0.485690 -0.440529 0.376773 0.096344 0.223689 0.326991 0.322103 -0.139020 0.422927 -0.236949 0.012657 -0.151762 0.208748 -0.276615 -0.081701 0.337570 0.798724 0.486100 0.212785 -0.100007 -0.219968 -0.191271 -0.271767 0.182057 0.383095 -0.084925 0.203862 -0.303106 0.069569 0.356658 0.040282 -0.440989 -0.060873 0.099448 0.275001 0.188770
19 0.145383 -0.034279 0.482545 -0.381080 0.007147 -0.288215 -0.035946 0.128801 0.066587 0.007757 0.132294 -0.008958 -0.276633 -0.284780 0.327545 -0.073344 -0.124499 -0.083505 0.227370 -0.060395 -0.204131 -0.293430 0.143867 0.064646 -0.150911 -0.264313 -0.317012 0.281596 0.090024 0.127285 0.102744 -0.042750 0.108139 -0.286754 -0.301606 -0.047331 -0.235289 -0.357083 0.072813 0.304319 -0.137491 0.120836 0.194420 -0.245925 -0.315829 0.105882 -0.037440 0.040778 -0.208450 -0.066096 -0.120523 -0.201627 -0.315243 -0.151737 -0.125333 0.298418 -0.040027 -0.390842 0.137369 -0.083819 -0.056455 -0.232038 0.029551 -0.245572
15 0.131505 0.018057 0.523670 -0.389795 -0.017583 -0.343651 -0.042582 0.137671 0.095484 0.008784 0.129875 -0.004623 -0.282714 -0.327464 0.342465 -0.129031 -0.109227 -0.088190 0.252305 -0.068261 -0.204315 -0.277565 0.090513 0.106407 -0.170531 -0.241913 -0.391185 0.251009 0.073351 0.150534 0.102296 -0.045578 0.153539 -0.287185 -0.346669 -0.022848 -0.249961 -0.376263 0.043838 0.332169 -0.114232 0.121643 0.174093 -0.233710 -0.362456 0.167160 -0.023872 0.021848 -0.235855 -0.072929 -0.186986 -0.220499 -0.315310 -0.159486 -0.128891 0.287597 -0.037451 -0.445552 0.105840 -0.079489 -0.060274 -0.223387 0.085883 -0.256691
22 -0.069103 0.352324 -0.142077 0.189057 0.051013 -0.127591 0.131897 -0.129854 -0.004324 0.152460 -0.286564 -0.018455 0.145760 0.072572 -0.345398 -0.044667 0.232436 0.119058 -0.312809 -0.206292 0.050335 -0.010429 -0.353618 -0.004199 0.156551 0.002887 0.082723 -0.499703 0.069977 0.162407 -0.268960 0.213736 0.254139 0.102606 -0.023209 0.136796 0.200925 0.130075 -0.007016 -0.323881 0.358279 0.051138 -0.205691 0.292464 -0.075223 0.219306 0.027531 -0.337313 0.122400 0.133815 -0.129790 0.090128 0.121231 -0.027729 0.100957 -0.215453 -0.293351 0.078191 -0.318940 0.013921 0.039417 0.137591 0.064391 0.048609
18 -0.045129 0.358768 -0.154863 0.153039 0.070026 -0.080306 0.111018 -0.123531 0.000097 0.153021 -0.319343 -0.026968 0.153566 0.076917 -0.353126 -0.102714 0.208138 0.099534 -0.321376 -0.185418 0.070132 -0.007575 -0.364323 -0.036900 0.137643 -0.031571 0.100596 -0.507481 0.134501 0.147407 -0.204404 0.207315 0.259151 0.071501 -0.015099 0.151915 0.219447 0.106530 0.028942 -0.363898 0.301164 0.043154 -0.173871 0.281233 -0.003640 0.211079 0.031315 -0.334749 0.110412 0.132695 -0.096979 0.069793 0.109765 -0.034490 0.105553 -0.178388 -0.278035 0.138300 -0.318622 -0.027777 0.044204 0.131242 0.056670 0.053946
23 0.137926 -0.061784 0.502457 -0.398022 0.019088 -0.308489 -0.056039 0.121857 0.080484 0.012550 0.162107 -0.022749 -0.313933 -0.314738 0.349789 -0.085207 -0.139706 -0.084064 0.256401 -0.018540 -0.188336 -0.282083 0.155599 0.093175 -0.162869 -0.285846 -0.349419 0.311000 0.095284 0.118349 0.128098 -0.039191 0.098631 -0.289558 -0.321414 -0.071925 -0.263716 -0.397057 0.058526 0.332068 -0.154743 0.139002 0.198899 -0.244331 -0.300962 0.113730 -0.035544 0.066716 -0.236473 -0.107708 -0.159460 -0.230876 -0.344340 -0.165732 -0.113692 0.282372 -0.041106 -0.418432 0.157987 -0.105193 -0.054147 -0.244774 0.039367 -0.252815
13 -0.166522 0.261521 -0.120915 0.317332 0.028561 -0.287064 0.254474 -0.146802 0.139000 0.136477 -0.211312 -0.013373 0.102487 0.144726 -0.551449 -0.137994 0.297507 0.074304 -0.157268 -0.111447 0.033478 -0.020426 -0.414944 0.163982 0.142580 0.084765 -0.021002 -0.504347 -0.004421 0.203554 -0.331655 0.274636 0.305888 0.151678 0.075904 0.321793 0.198415 0.220415 -0.140058 -0.353119 0.406092 0.014564 -0.249085 0.469181 -0.053403 0.082172 0.140134 -0.248090 0.110197 0.045873 -0.206495 -0.058001 0.183790 -0.125535 0.032730 -0.424136 -0.310965 0.106202 -0.484275 0.010711 0.015884 0.218048 0.143438 0.070158
16 0.138902 -0.056118 0.485135 -0.327344 0.005358 -0.295626 -0.011461 0.120854 0.117124 -0.003221 0.168773 -0.000241 -0.278651 -0.282879 0.299114 -0.116998 -0.129395 -0.114109 0.264157 0.023965 -0.178398 -0.289608 0.138108 0.104280 -0.164579 -0.251471 -0.354147 0.294952 0.059401 0.129256 0.123009 -0.056314 0.085648 -0.267329 -0.301471 -0.032087 -0.256725 -0.334528 0.026984 0.299498 -0.150977 0.118540 0.178701 -0.210151 -0.266777 0.088293 -0.037488 0.083669 -0.214978 -0.103194 -0.144150 -0.226263 -0.306314 -0.142677 -0.114814 0.255305 -0.006876 -0.371637 0.132031 -0.069795 -0.046928 -0.191414 0.060280 -0.220881
10 0.201531 0.103578 0.377314 -0.001248 0.114489 -0.123949 0.269251 0.091240 0.344758 -0.000226 -0.045583 0.036389 -0.017224 -0.222581 -0.001319 -0.363593 -0.091645 -0.310158 0.113754 0.192658 -0.156224 -0.458817 -0.221595 0.098897 -0.153029 -0.188825 -0.277297 0.006679 -0.069771 0.173939 0.098604 -0.007734 0.077071 -0.109296 -0.354924 0.153826 -0.109793 -0.043556 -0.025388 -0.127625 -0.105010 -0.052631 0.010375 -0.142243 -0.045494 0.118500 -0.131714 0.076910 0.001194 -0.055385 -0.026455 -0.147244 -0.097708 0.017798 0.061239 0.265275 0.172503 -0.007578 -0.054132 0.071897 0.051393 0.101869 0.144064 -0.172485
21 0.142920 -0.040155 0.448295 -0.368932 0.007182 -0.249881 -0.067688 0.116825 0.038455 -0.003651 0.144775 0.000746 -0.264830 -0.278459 0.376084 -0.051069 -0.132187 -0.082502 0.226221 -0.019886 -0.182158 -0.239322 0.146967 0.071051 -0.167191 -0.236808 -0.307074 0.290638 0.063301 0.099037 0.122447 -0.071062 0.079290 -0.258138 -0.317111 -0.083194 -0.232959 -0.346182 0.063768 0.319531 -0.146591 0.115155 0.179923 -0.260407 -0.279313 0.124611 -0.046982 0.054631 -0.205290 -0.093646 -0.132477 -0.164937 -0.310793 -0.121833 -0.101254 0.282896 0.018280 -0.375496 0.176522 -0.070080 -0.040511 -0.214969 0.043877 -0.232310
27 0.237810 -0.060236 0.384977 -0.379405 0.062358 -0.020712 -0.133060 0.234451 -0.216871 0.007732 0.078656 -0.023010 -0.129552 -0.199763 0.566064 0.287122 -0.142600 0.005647 -0.019232 -0.174509 -0.303914 -0.273857 0.208879 -0.186617 -0.059149 -0.257938 -0.037775 0.307195 -0.002619 0.112497 -0.024898 -0.083077 0.016132 -0.222289 -0.359299 -0.161073 -0.234771 -0.235112 0.168521 0.323723 -0.233341 0.195203 0.154563 -0.382773 -0.433257 0.068388 -0.157981 -0.034631 -0.094159 0.053466 0.065755 0.084425 -0.342402 0.008935 -0.090021 0.302850 0.104227 -0.313773 0.275260 -0.007170 0.007689 -0.255290 -0.164040 -0.203796
12 -0.182647 0.142820 -0.249055 0.042648 -0.079322 -0.041380 -0.037648 -0.093239 0.015210 0.067680 -0.135365 0.005752 0.080269 0.169152 -0.377210 -0.116176 0.139906 0.183264 -0.066291 -0.208326 0.157229 0.255753 -0.097569 0.007435 0.133245 0.166222 0.138566 -0.303173 0.158596 -0.033865 -0.076069 0.118702 0.116102 0.062495 0.326687 0.142760 0.254493 0.066349 -0.009573 -0.119967 0.132840 -0.051072 0.003051 0.236160 0.100962 -0.018761 0.215416 -0.177003 0.022143 0.073410 -0.043549 -0.066884 0.206890 -0.078096 -0.055124 -0.177221 -0.242554 0.106764 -0.262206 -0.085618 -0.056163 0.019415 0.044809 0.116859
